-9.999493509531021118e-02
-2.975411415100097656e-01
8.502329587936401367e-01
7.870331406593322754e-01
1.264425069093704224e-01
7.206632494926452637e-01
2.041338086128234863e-01
2.890464365482330322e-01
-2.689821720123291016e-01
2.798830270767211914e-01
1.691555380821228027e-01
-5.022982954978942871e-01
4.531375765800476074e-01
4.407286345958709717e-01
3.323988914489746094e-01
7.402150034904479980e-01
1.343838125467300415e-01
-7.390174269676208496e-02
2.455915510654449463e-01
3.186754286289215088e-01
-2.057896405458450317e-01
-1.147709935903549194e-01
4.181871414184570312e-01
-3.159637562930583954e-03
3.148858547210693359e-01
6.301844716072082520e-01
3.595088422298431396e-01
3.922095596790313721e-01
6.749899983406066895e-01
-1.109392568469047546e-01
9.350902587175369263e-02
-5.752005055546760559e-02
-3.714725375175476074e-01
3.628662228584289551e-01
2.182980328798294067e-01
2.306946516036987305e-01
2.412462234497070312e-01
-2.910431921482086182e-01
-3.084726035594940186e-01
-7.991853356361389160e-02
4.128366112709045410e-01
4.953335225582122803e-01
-3.774783909320831299e-01
-7.406675070524215698e-02
1.834483742713928223e-01
-1.363797783851623535e-01
1.233896389603614807e-01
-1.487566716969013214e-02
-3.276672065258026123e-01
2.549996078014373779e-01
4.214466512203216553e-01
6.004998683929443359e-01
4.615768194198608398e-01
3.316690921783447266e-01
1.199231818318367004e-01
1.720747053623199463e-01
6.135693192481994629e-01
-1.391927748918533325e-01
2.033805102109909058e-01
7.144147753715515137e-01
2.036939710378646851e-01
-1.065551191568374634e-01
-1.659171283245086670e-01
2.295925319194793701e-01
