3.580157756805419922e-01
3.411141633987426758e-01
4.976959824562072754e-01
-1.790792681276798248e-02
5.739361047744750977e-01
-1.876240670680999756e-01
9.439754486083984375e-02
3.601011633872985840e-01
5.472448468208312988e-01
7.963857054710388184e-01
2.384244278073310852e-02
-3.519646450877189636e-02
4.241448342800140381e-01
-2.503295540809631348e-01
-1.026410236954689026e-01
1.270183175802230835e-01
-1.208068877458572388e-01
2.361536324024200439e-01
7.672117948532104492e-01
-1.888629347085952759e-01
8.721084147691726685e-02
9.092826247215270996e-01
1.309400349855422974e-01
1.681176871061325073e-01
4.247243106365203857e-01
6.318625211715698242e-01
2.526215314865112305e-01
8.926938176155090332e-01
-5.525304004549980164e-02
-3.500847890973091125e-02
-4.359648227691650391e-01
1.838572695851325989e-02
3.541830480098724365e-01
1.133332550525665283e-01
6.275507807731628418e-01
1.770215928554534912e-01
3.288360536098480225e-01
2.905855327844619751e-02
-4.976899549365043640e-02
-2.365432679653167725e-01
3.128517866134643555e-01
3.078635036945343018e-01
-4.904294312000274658e-01
5.269946455955505371e-01
1.804978549480438232e-01
-5.853103399276733398e-01
-4.335604235529899597e-02
-5.738019943237304688e-03
-1.322536468505859375e-01
9.138070940971374512e-01
2.231097966432571411e-01
4.700054824352264404e-01
5.227450132369995117e-01
2.285193502902984619e-01
1.426862627267837524e-01
2.938627302646636963e-01
3.405108749866485596e-01
-2.026953697204589844e-01
2.487845160067081451e-02
2.996772825717926025e-01
2.237202078104019165e-01
1.823753267526626587e-01
-5.924961995333433151e-03
3.439764976501464844e-01
