1.423612236976623535e-01
9.508267045021057129e-02
6.164563298225402832e-01
-1.544144392013549805e+00
2.000591717660427094e-02
1.734691560268402100e-01
-1.583089232444763184e-01
1.342832326889038086e+00
2.335333824157714844e-02
1.337343901395797729e-01
-1.531547895865514874e-04
-1.508505702018737793e+00
-1.237221285700798035e-01
-1.200477004051208496e+00
-1.359162211418151855e+00
-3.773993998765945435e-02
1.317134737968444824e+00
-9.734287261962890625e-01
3.010736405849456787e-01
-1.205834865570068359e+00
-6.953548789024353027e-01
3.880631029605865479e-01
-5.905005335807800293e-01
1.083779215812683105e+00
-5.661016106605529785e-01
-8.377287387847900391e-01
-1.032133817672729492e+00
6.904385685920715332e-01
-1.140202581882476807e-01
1.087251380085945129e-01
6.732060313224792480e-01
1.146348476409912109e+00
-6.921815872192382812e-01
6.439366191625595093e-02
-7.022119164466857910e-01
-3.666972275823354721e-03
-1.833061873912811279e-01
8.623544871807098389e-02
1.168511271476745605e+00
-2.995871007442474365e-01
-1.538553535938262939e-01
-8.247210979461669922e-01
-1.042229294776916504e+00
-6.433197855949401855e-01
1.945915631949901581e-02
4.228502139449119568e-02
-8.723248839378356934e-01
-4.871717393398284912e-01
3.713865876197814941e-01
-1.932488977909088135e-01
-2.101377248764038086e-01
-2.139890380203723907e-02
7.588772773742675781e-01
-1.197863295674324036e-01
-8.474510312080383301e-01
-4.521612524986267090e-01
-1.271387487649917603e-01
7.369021326303482056e-02
-1.712581068277359009e-01
-1.126432061195373535e+00
1.440602779388427734e+00
3.314743340015411377e-01
-6.124011874198913574e-01
-5.013234615325927734e-01
