-7.305136322975158691e-01
-1.077902555465698242e+00
-6.889648437500000000e-01
-5.009562373161315918e-01
-5.397936105728149414e-01
-1.438477635383605957e-01
-2.010255604982376099e-01
-1.554678678512573242e-01
4.690763056278228760e-01
-9.875432848930358887e-01
-2.775925397872924805e-01
-3.066659569740295410e-01
6.806599907577037811e-03
5.447511672973632812e-01
-1.251333713531494141e+00
1.258509308099746704e-01
-2.369476854801177979e-01
3.489461541175842285e-02
-1.226057291030883789e+00
-1.365004658699035645e+00
-6.223195195198059082e-01
3.101037740707397461e-01
1.840665191411972046e-02
-8.106324076652526855e-01
-1.178889155387878418e+00
-2.057691477239131927e-02
-3.952262401580810547e-01
4.519729018211364746e-01
-2.391009032726287842e-01
-3.197741508483886719e-01
7.336412668228149414e-01
-8.894743323326110840e-01
-1.294500112533569336e+00
2.022486329078674316e-01
7.611082792282104492e-01
-1.419847488403320312e+00
-3.745797574520111084e-01
-6.879696249961853027e-01
3.517631068825721741e-02
9.875695407390594482e-02
-8.057734370231628418e-01
1.032719239592552185e-01
-6.680154800415039062e-02
-3.977869451045989990e-01
-6.912299990653991699e-01
-5.475219488143920898e-01
1.464714884757995605e+00
-8.362935185432434082e-01
-6.563726067543029785e-01
-6.225217580795288086e-01
-3.018988966941833496e-01
6.779789328575134277e-01
-4.924407005310058594e-01
-1.510735005140304565e-01
-1.334479451179504395e+00
-5.093756914138793945e-01
8.694996237754821777e-01
-8.575571179389953613e-01
-9.483568668365478516e-01
-3.096269369125366211e-01
-1.101724505424499512e+00
-2.830384373664855957e-01
-6.182823181152343750e-01
-3.999206423759460449e-02
