8.692831546068191528e-02
-4.387491047382354736e-01
-1.421507239341735840e+00
-1.073145508766174316e+00
-3.790108263492584229e-01
-1.178624868392944336e+00
-1.398340582847595215e+00
-1.737472862005233765e-01
-9.344820976257324219e-01
6.755336374044418335e-02
-4.093166887760162354e-01
2.202242761850357056e-01
-6.656514108180999756e-02
2.269483655691146851e-01
-6.809673309326171875e-01
7.079964876174926758e-01
-8.417735099792480469e-01
-8.278918266296386719e-01
-9.876524209976196289e-01
-3.343254327774047852e-01
-1.382593631744384766e+00
-7.332691550254821777e-01
-4.860353171825408936e-01
-7.031263709068298340e-01
-6.922941803932189941e-01
1.832460314035415649e-01
-1.516944289207458496e+00
-8.780706524848937988e-01
3.346205353736877441e-01
-3.974528312683105469e-01
-1.916929483413696289e-01
-1.323821902275085449e+00
4.030273854732513428e-02
8.488156795501708984e-01
1.398749470710754395e+00
-8.804509639739990234e-01
-1.074358105659484863e+00
-1.026144266128540039e+00
-1.478727817535400391e+00
-5.179085731506347656e-01
9.551923871040344238e-01
-3.230303525924682617e-02
-9.463415741920471191e-01
9.251096285879611969e-03
-2.561520040035247803e-01
-7.273170351982116699e-01
-1.164201617240905762e+00
-4.879283159971237183e-02
-1.255057334899902344e+00
-1.619824528694152832e+00
-6.336808800697326660e-01
5.089985728263854980e-01
-4.486914575099945068e-01
-4.142709970474243164e-01
9.522276520729064941e-01
-5.346910357475280762e-01
-1.019168734550476074e+00
-7.110115885734558105e-01
-1.239487230777740479e-01
-2.879581451416015625e-01
8.307517766952514648e-01
-3.646676242351531982e-01
-1.266221284866333008e+00
-3.780573606491088867e-01
