8.280370384454727173e-02
7.714719176292419434e-01
-1.236944794654846191e+00
1.894623190164566040e-01
1.143400669097900391e+00
-1.555734038352966309e+00
-5.664767026901245117e-01
-5.457512736320495605e-01
-7.701930999755859375e-01
4.493075236678123474e-02
1.452367067337036133e+00
-1.171755790710449219e+00
-1.162303924560546875e+00
4.433635249733924866e-02
-1.143103480339050293e+00
1.672517657279968262e+00
1.174503043293952942e-01
2.887156009674072266e-01
1.286363899707794189e-01
7.614790797233581543e-01
-8.412445187568664551e-01
6.249528527259826660e-01
-8.388065099716186523e-01
-3.669461905956268311e-01
-2.202082723379135132e-01
-7.155659794807434082e-01
5.088526010513305664e-01
-4.471523761749267578e-01
-5.521737337112426758e-01
7.605141401290893555e-01
-1.415359377861022949e+00
-8.803582191467285156e-01
1.180012226104736328e+00
-9.385520219802856445e-01
-1.110427379608154297e+00
2.961382828652858734e-02
-8.978024125099182129e-01
-5.851894617080688477e-01
1.417406558990478516e+00
-4.636377990245819092e-01
-1.609674096107482910e+00
-1.201298236846923828e+00
-9.518620371818542480e-01
5.809204578399658203e-01
-3.338473141193389893e-01
-8.644251227378845215e-01
-1.616372942924499512e+00
7.076214551925659180e-01
-1.273302793502807617e+00
-2.892698049545288086e-01
-8.718033134937286377e-02
4.014147520065307617e-01
3.137089610099792480e-01
5.907394737005233765e-02
-4.823426529765129089e-02
-1.165684342384338379e+00
-1.414183378219604492e-01
-8.372641205787658691e-01
-5.619160532951354980e-01
-1.049847245216369629e+00
-1.241004109382629395e+00
-4.071043431758880615e-01
3.482383489608764648e-02
-4.760314226150512695e-01
