1.400454640388488770e+00
-9.830062836408615112e-02
-2.359298169612884521e-01
-6.605868935585021973e-01
-1.105055332183837891e+00
-1.012212991714477539e+00
1.009963989257812500e+00
-2.546018362045288086e-01
-2.843773551285266876e-02
-1.443957328796386719e+00
-1.521647214889526367e+00
5.959100127220153809e-01
-5.312859416007995605e-01
-1.335611104965209961e+00
-1.470401436090469360e-01
-8.898076415061950684e-01
1.802595853805541992e-01
-9.751467704772949219e-01
-1.592583537101745605e+00
3.497026562690734863e-01
-7.855113744735717773e-01
3.554396703839302063e-02
-4.563711881637573242e-01
-1.351411342620849609e+00
-9.872094541788101196e-02
-1.252911567687988281e+00
-1.203212216496467590e-01
-5.643096566200256348e-01
5.900245308876037598e-01
-1.337364763021469116e-01
-3.333510458469390869e-01
5.446779131889343262e-01
-7.935312390327453613e-01
-3.278735280036926270e-01
-3.690583631396293640e-02
-1.173028647899627686e-01
-9.493954777717590332e-01
1.255913615226745605e+00
-5.075129270553588867e-01
1.301891058683395386e-01
1.516047567129135132e-01
1.093462228775024414e+00
-9.162380099296569824e-01
-5.199462175369262695e-02
-1.003865242004394531e+00
-1.351341366767883301e+00
-1.466716170310974121e+00
-1.735202409327030182e-02
-7.379369735717773438e-01
-1.789739578962326050e-01
1.786762624979019165e-01
-1.167612552642822266e+00
-9.755186438560485840e-01
-1.011405467987060547e+00
-6.564051508903503418e-01
-7.258681058883666992e-01
-5.969115495681762695e-01
-1.773656487464904785e+00
-6.872229576110839844e-01
-1.180955410003662109e+00
-5.349075198173522949e-01
-6.213398575782775879e-01
-4.298480451107025146e-01
-1.310958266258239746e+00
